<?xml version="1.0" encoding="UTF-8" standalone="yes"?>
<PMML xmlns="http://www.dmg.org/PMML-4_4" xmlns:data="http://jpmml.org/jpmml-model/InlineTable" version="4.3">
	<Header>
		<Application name="JPMML-SparkML" version="1.5-SNAPSHOT"/>
		<Timestamp>2021-01-03T07:11:12Z</Timestamp>
	</Header>
	<DataDictionary>
		<DataField name="Adjusted" optype="categorical" dataType="integer">
			<Value value="0"/>
			<Value value="1"/>
		</DataField>
		<DataField name="Employment" optype="categorical" dataType="string">
			<Value value="Private"/>
			<Value value="Consultant"/>
			<Value value="PSLocal"/>
			<Value value="SelfEmp"/>
			<Value value="PSState"/>
			<Value value="PSFederal"/>
			<Value value="Volunteer"/>
		</DataField>
		<DataField name="Education" optype="categorical" dataType="string">
			<Value value="HSgrad"/>
			<Value value="College"/>
			<Value value="Bachelor"/>
			<Value value="Master"/>
			<Value value="Vocational"/>
			<Value value="Associate"/>
			<Value value="Yr11"/>
			<Value value="Yr10"/>
			<Value value="Yr7t8"/>
			<Value value="Yr9"/>
			<Value value="Doctorate"/>
			<Value value="Professional"/>
			<Value value="Yr5t6"/>
			<Value value="Yr12"/>
			<Value value="Preschool"/>
			<Value value="Yr1t4"/>
		</DataField>
		<DataField name="Marital" optype="categorical" dataType="string">
			<Value value="Married"/>
			<Value value="Absent"/>
			<Value value="Divorced"/>
			<Value value="Unmarried"/>
			<Value value="Widowed"/>
			<Value value="Married-spouse-absent"/>
		</DataField>
		<DataField name="Occupation" optype="categorical" dataType="string">
			<Value value="Executive"/>
			<Value value="Professional"/>
			<Value value="Clerical"/>
			<Value value="Repair"/>
			<Value value="Service"/>
			<Value value="Sales"/>
			<Value value="Machinist"/>
			<Value value="Transport"/>
			<Value value="Cleaner"/>
			<Value value="Farming"/>
			<Value value="Support"/>
			<Value value="Protective"/>
			<Value value="Home"/>
			<Value value="Military"/>
		</DataField>
		<DataField name="Gender" optype="categorical" dataType="string">
			<Value value="Male"/>
			<Value value="Female"/>
		</DataField>
		<DataField name="Age" optype="continuous" dataType="integer"/>
		<DataField name="Income" optype="continuous" dataType="double"/>
		<DataField name="Hours" optype="continuous" dataType="double"/>
		<DataField name="Deductions" optype="categorical" dataType="boolean"/>
	</DataDictionary>
	<TransformationDictionary/>
	<MiningModel functionName="classification" algorithmName="XGBoost (GBTree)" x-mathContext="float">
		<MiningSchema>
			<MiningField name="Adjusted" usageType="target"/>
			<MiningField name="Employment"/>
			<MiningField name="Education"/>
			<MiningField name="Marital"/>
			<MiningField name="Occupation"/>
			<MiningField name="Gender"/>
			<MiningField name="Age"/>
			<MiningField name="Income"/>
			<MiningField name="Hours"/>
			<MiningField name="Deductions"/>
		</MiningSchema>
		<Output>
			<OutputField name="pmml(prediction)" optype="categorical" dataType="integer" isFinalResult="false"/>
			<OutputField name="prediction" optype="continuous" dataType="double" feature="transformedValue">
				<MapValues outputColumn="data:output" dataType="double">
					<FieldColumnPair field="pmml(prediction)" column="data:input"/>
					<InlineTable>
						<row>
							<data:input>0</data:input>
							<data:output>0</data:output>
						</row>
						<row>
							<data:input>1</data:input>
							<data:output>1</data:output>
						</row>
					</InlineTable>
				</MapValues>
			</OutputField>
		</Output>
		<Segmentation multipleModelMethod="modelChain" missingPredictionTreatment="returnMissing">
			<Segment id="1">
				<True/>
				<MiningModel functionName="regression" x-mathContext="float">
					<MiningSchema>
						<MiningField name="Employment"/>
						<MiningField name="Education"/>
						<MiningField name="Marital"/>
						<MiningField name="Occupation"/>
						<MiningField name="Gender"/>
						<MiningField name="Age"/>
						<MiningField name="Income"/>
						<MiningField name="Hours"/>
						<MiningField name="Deductions"/>
					</MiningSchema>
					<Output>
						<OutputField name="xgbValue" optype="continuous" dataType="float" isFinalResult="false"/>
					</Output>
					<LocalTransformations>
						<DerivedField name="float(Age)" optype="continuous" dataType="float">
							<FieldRef field="Age"/>
						</DerivedField>
						<DerivedField name="float(Income)" optype="continuous" dataType="float">
							<FieldRef field="Income"/>
						</DerivedField>
						<DerivedField name="float(Hours)" optype="continuous" dataType="float">
							<FieldRef field="Hours"/>
						</DerivedField>
						<DerivedField name="Deductions=true" optype="continuous" dataType="double">
							<NormDiscrete field="Deductions" value="true"/>
						</DerivedField>
						<DerivedField name="float(Deductions=true)" optype="continuous" dataType="float">
							<FieldRef field="Deductions=true"/>
						</DerivedField>
					</LocalTransformations>
					<Segmentation multipleModelMethod="sum">
						<Segment id="1">
							<True/>
							<TreeModel functionName="regression" missingValueStrategy="defaultChild" splitCharacteristic="binarySplit" x-mathContext="float">
								<MiningSchema>
									<MiningField name="Employment"/>
									<MiningField name="Education"/>
									<MiningField name="Marital"/>
									<MiningField name="Occupation"/>
									<MiningField name="Gender"/>
									<MiningField name="float(Age)"/>
									<MiningField name="float(Income)"/>
									<MiningField name="float(Hours)"/>
									<MiningField name="float(Deductions=true)"/>
								</MiningSchema>
								<Node id="0" defaultChild="1">
									<True/>
									<Node id="1" defaultChild="3">
										<SimplePredicate field="Marital" operator="notEqual" value="Married"/>
										<Node id="3" defaultChild="8">
											<SimplePredicate field="Occupation" operator="notEqual" value="Executive"/>
											<Node id="7" defaultChild="15">
												<SimplePredicate field="float(Age)" operator="lessThan" value="31.999998"/>
												<Node id="15" score="0.16363637">
													<SimplePredicate field="Education" operator="notEqual" value="Bachelor"/>
												</Node>
												<Node id="16" score="-0.3176471">
													<SimplePredicate field="Education" operator="equal" value="Bachelor"/>
												</Node>
											</Node>
											<Node id="8" defaultChild="17">
												<SimplePredicate field="float(Age)" operator="greaterOrEqual" value="31.999998"/>
												<Node id="17" defaultChild="28">
													<SimplePredicate field="Employment" operator="notEqual" value="Consultant"/>
													<Node id="27" defaultChild="42">
														<SimplePredicate field="float(Income)" operator="lessThan" value="42357.0"/>
														<Node id="41" score="-0.06666667">
															<SimplePredicate field="float(Age)" operator="lessThan" value="46.0"/>
														</Node>
														<Node id="42" score="0.06666667">
															<SimplePredicate field="float(Age)" operator="greaterOrEqual" value="46.0"/>
														</Node>
													</Node>
													<Node id="28" score="-0.27272728">
														<SimplePredicate field="float(Income)" operator="greaterOrEqual" value="42357.0"/>
													</Node>
												</Node>
												<Node id="18" defaultChild="29">
													<SimplePredicate field="Employment" operator="equal" value="Consultant"/>
													<Node id="29" defaultChild="43">
														<SimplePredicate field="Education" operator="notEqual" value="HSgrad"/>
														<Node id="43" score="-0.050000004">
															<SimplePredicate field="Employment" operator="notEqual" value="Private"/>
														</Node>
														<Node id="44" score="0.28">
															<SimplePredicate field="Employment" operator="equal" value="Private"/>
														</Node>
													</Node>
													<Node id="30" defaultChild="46">
														<SimplePredicate field="Education" operator="equal" value="HSgrad"/>
														<Node id="45" score="0.085714296">
															<SimplePredicate field="float(Income)" operator="lessThan" value="14925.85"/>
														</Node>
														<Node id="46" score="0.3923077">
															<SimplePredicate field="float(Income)" operator="greaterOrEqual" value="14925.85"/>
														</Node>
													</Node>
												</Node>
											</Node>
										</Node>
										<Node id="4" defaultChild="9">
											<SimplePredicate field="Occupation" operator="equal" value="Executive"/>
											<Node id="9" defaultChild="19">
												<SimplePredicate field="Occupation" operator="notEqual" value="Professional"/>
												<Node id="19" score="-0.26666668">
													<SimplePredicate field="Education" operator="notEqual" value="College"/>
												</Node>
												<Node id="20" defaultChild="32">
													<SimplePredicate field="Education" operator="equal" value="College"/>
													<Node id="31" score="-0.20000002">
														<SimplePredicate field="float(Hours)" operator="lessThan" value="20.999998"/>
													</Node>
													<Node id="32" defaultChild="48">
														<SimplePredicate field="float(Hours)" operator="greaterOrEqual" value="20.999998"/>
														<Node id="47" score="0.3512195">
															<SimplePredicate field="float(Hours)" operator="lessThan" value="60.0"/>
														</Node>
														<Node id="48" score="0.07826087">
															<SimplePredicate field="float(Hours)" operator="greaterOrEqual" value="60.0"/>
														</Node>
													</Node>
												</Node>
											</Node>
											<Node id="10" defaultChild="22">
												<SimplePredicate field="Occupation" operator="equal" value="Professional"/>
												<Node id="21" defaultChild="34">
													<SimplePredicate field="float(Age)" operator="lessThan" value="37.0"/>
													<Node id="33" score="0.16363637">
														<SimplePredicate field="float(Deductions=true)" operator="lessThan" value="2.000001"/>
													</Node>
													<Node id="34" defaultChild="49">
														<SimplePredicate field="float(Deductions=true)" operator="greaterOrEqual" value="2.000001"/>
														<Node id="49" score="-0.13043478">
															<SimplePredicate field="Education" operator="notEqual" value="College"/>
														</Node>
														<Node id="50" score="-0.4094118">
															<SimplePredicate field="Education" operator="equal" value="College"/>
														</Node>
													</Node>
												</Node>
												<Node id="22" defaultChild="35">
													<SimplePredicate field="float(Age)" operator="greaterOrEqual" value="37.0"/>
													<Node id="35" defaultChild="52">
														<SimplePredicate field="Occupation" operator="notEqual" value="Clerical"/>
														<Node id="51" score="-0.17142859">
															<SimplePredicate field="float(Income)" operator="lessThan" value="29177.56"/>
														</Node>
														<Node id="52" score="0.27272728">
															<SimplePredicate field="float(Income)" operator="greaterOrEqual" value="29177.56"/>
														</Node>
													</Node>
													<Node id="36" defaultChild="53">
														<SimplePredicate field="Occupation" operator="equal" value="Clerical"/>
														<Node id="53" score="0.11489362">
															<SimplePredicate field="Education" operator="notEqual" value="Bachelor"/>
														</Node>
														<Node id="54" score="-0.21649484">
															<SimplePredicate field="Education" operator="equal" value="Bachelor"/>
														</Node>
													</Node>
												</Node>
											</Node>
										</Node>
									</Node>
									<Node id="2" defaultChild="5">
										<SimplePredicate field="Marital" operator="equal" value="Married"/>
										<Node id="5" defaultChild="11">
											<SimplePredicate field="Education" operator="notEqual" value="Professional"/>
											<Node id="11" score="0.27272728">
												<SimplePredicate field="Gender" operator="notEqual" value="Male"/>
											</Node>
											<Node id="12" score="-0.3">
												<SimplePredicate field="Gender" operator="equal" value="Male"/>
											</Node>
										</Node>
										<Node id="6" defaultChild="13">
											<SimplePredicate field="Education" operator="equal" value="Professional"/>
											<Node id="13" defaultChild="24">
												<SimplePredicate field="Education" operator="notEqual" value="Doctorate"/>
												<Node id="23" score="-0.06666667">
													<SimplePredicate field="float(Age)" operator="lessThan" value="43.0"/>
												</Node>
												<Node id="24" score="0.06666667">
													<SimplePredicate field="float(Age)" operator="greaterOrEqual" value="43.0"/>
												</Node>
											</Node>
											<Node id="14" defaultChild="25">
												<SimplePredicate field="Education" operator="equal" value="Doctorate"/>
												<Node id="25" defaultChild="38">
													<SimplePredicate field="Education" operator="notEqual" value="Bachelor"/>
													<Node id="37" defaultChild="56">
														<SimplePredicate field="float(Age)" operator="lessThan" value="42.0"/>
														<Node id="55" score="-0.52000004">
															<SimplePredicate field="float(Hours)" operator="lessThan" value="49.0"/>
														</Node>
														<Node id="56" score="-0.24444444">
															<SimplePredicate field="float(Hours)" operator="greaterOrEqual" value="49.0"/>
														</Node>
													</Node>
													<Node id="38" defaultChild="58">
														<SimplePredicate field="float(Age)" operator="greaterOrEqual" value="42.0"/>
														<Node id="57" score="0.026086958">
															<SimplePredicate field="float(Income)" operator="lessThan" value="74757.49"/>
														</Node>
														<Node id="58" score="-0.3857143">
															<SimplePredicate field="float(Income)" operator="greaterOrEqual" value="74757.49"/>
														</Node>
													</Node>
												</Node>
												<Node id="26" defaultChild="39">
													<SimplePredicate field="Education" operator="equal" value="Bachelor"/>
													<Node id="39" defaultChild="60">
														<SimplePredicate field="Education" operator="notEqual" value="Master"/>
														<Node id="59" score="-0.40540543">
															<SimplePredicate field="float(Income)" operator="lessThan" value="176293.81"/>
														</Node>
														<Node id="60" score="-0.06666667">
															<SimplePredicate field="float(Income)" operator="greaterOrEqual" value="176293.81"/>
														</Node>
													</Node>
													<Node id="40" defaultChild="61">
														<SimplePredicate field="Education" operator="equal" value="Master"/>
														<Node id="61" score="-0.3767442">
															<SimplePredicate field="Education" operator="notEqual" value="Associate"/>
														</Node>
														<Node id="62" score="-0.57522583">
															<SimplePredicate field="Education" operator="equal" value="Associate"/>
														</Node>
													</Node>
												</Node>
											</Node>
										</Node>
									</Node>
								</Node>
							</TreeModel>
						</Segment>
						<Segment id="2">
							<True/>
							<TreeModel functionName="regression" missingValueStrategy="defaultChild" splitCharacteristic="binarySplit" x-mathContext="float">
								<MiningSchema>
									<MiningField name="Employment"/>
									<MiningField name="Education"/>
									<MiningField name="Marital"/>
									<MiningField name="Occupation"/>
									<MiningField name="float(Age)"/>
									<MiningField name="float(Income)"/>
									<MiningField name="float(Hours)"/>
									<MiningField name="float(Deductions=true)"/>
								</MiningSchema>
								<Node id="0" defaultChild="1">
									<True/>
									<Node id="1" defaultChild="3">
										<SimplePredicate field="Marital" operator="notEqual" value="Married"/>
										<Node id="3" defaultChild="8">
											<SimplePredicate field="Education" operator="notEqual" value="Master"/>
											<Node id="7" score="-0.035238232">
												<SimplePredicate field="float(Hours)" operator="lessThan" value="20.999998"/>
											</Node>
											<Node id="8" defaultChild="16">
												<SimplePredicate field="float(Hours)" operator="greaterOrEqual" value="20.999998"/>
												<Node id="15" score="0.026467932">
													<SimplePredicate field="float(Income)" operator="lessThan" value="14830.56"/>
												</Node>
												<Node id="16" defaultChild="26">
													<SimplePredicate field="float(Income)" operator="greaterOrEqual" value="14830.56"/>
													<Node id="25" score="0.41446757">
														<SimplePredicate field="float(Age)" operator="lessThan" value="58.0"/>
													</Node>
													<Node id="26" score="0.057695318">
														<SimplePredicate field="float(Age)" operator="greaterOrEqual" value="58.0"/>
													</Node>
												</Node>
											</Node>
										</Node>
										<Node id="4" defaultChild="9">
											<SimplePredicate field="Education" operator="equal" value="Master"/>
											<Node id="9" defaultChild="18">
												<SimplePredicate field="Education" operator="notEqual" value="Bachelor"/>
												<Node id="17" defaultChild="27">
													<SimplePredicate field="float(Hours)" operator="lessThan" value="41.0"/>
													<Node id="27" defaultChild="40">
														<SimplePredicate field="Employment" operator="notEqual" value="Private"/>
														<Node id="39" score="-0.16696043">
															<SimplePredicate field="float(Age)" operator="lessThan" value="34.0"/>
														</Node>
														<Node id="40" score="0.16171351">
															<SimplePredicate field="float(Age)" operator="greaterOrEqual" value="34.0"/>
														</Node>
													</Node>
													<Node id="28" defaultChild="42">
														<SimplePredicate field="Employment" operator="equal" value="Private"/>
														<Node id="41" score="-0.3827003">
															<SimplePredicate field="float(Hours)" operator="lessThan" value="38.0"/>
														</Node>
														<Node id="42" score="2.7925195E-4">
															<SimplePredicate field="float(Hours)" operator="greaterOrEqual" value="38.0"/>
														</Node>
													</Node>
												</Node>
												<Node id="18" defaultChild="29">
													<SimplePredicate field="float(Hours)" operator="greaterOrEqual" value="41.0"/>
													<Node id="29" defaultChild="44">
														<SimplePredicate field="Employment" operator="notEqual" value="Private"/>
														<Node id="43" score="0.2278578">
															<SimplePredicate field="float(Income)" operator="lessThan" value="39093.3"/>
														</Node>
														<Node id="44" score="0.4335412">
															<SimplePredicate field="float(Income)" operator="greaterOrEqual" value="39093.3"/>
														</Node>
													</Node>
													<Node id="30" defaultChild="45">
														<SimplePredicate field="Employment" operator="equal" value="Private"/>
														<Node id="45" score="-0.16849974">
															<SimplePredicate field="Occupation" operator="notEqual" value="Professional"/>
														</Node>
														<Node id="46" score="0.13809116">
															<SimplePredicate field="Occupation" operator="equal" value="Professional"/>
														</Node>
													</Node>
												</Node>
											</Node>
											<Node id="10" defaultChild="20">
												<SimplePredicate field="Education" operator="equal" value="Bachelor"/>
												<Node id="19" defaultChild="31">
													<SimplePredicate field="float(Age)" operator="lessThan" value="36.0"/>
													<Node id="31" score="0.29643977">
														<SimplePredicate field="Education" operator="notEqual" value="Professional"/>
													</Node>
													<Node id="32" defaultChild="48">
														<SimplePredicate field="Education" operator="equal" value="Professional"/>
														<Node id="47" score="0.09097479">
															<SimplePredicate field="float(Deductions=true)" operator="lessThan" value="2.000001"/>
														</Node>
														<Node id="48" score="-0.28392047">
															<SimplePredicate field="float(Deductions=true)" operator="greaterOrEqual" value="2.000001"/>
														</Node>
													</Node>
												</Node>
												<Node id="20" defaultChild="34">
													<SimplePredicate field="float(Age)" operator="greaterOrEqual" value="36.0"/>
													<Node id="33" defaultChild="49">
														<SimplePredicate field="float(Hours)" operator="lessThan" value="35.0"/>
														<Node id="49" score="0.0103760185">
															<SimplePredicate field="Occupation" operator="notEqual" value="Clerical"/>
														</Node>
														<Node id="50" score="-0.36982197">
															<SimplePredicate field="Occupation" operator="equal" value="Clerical"/>
														</Node>
													</Node>
													<Node id="34" defaultChild="51">
														<SimplePredicate field="float(Hours)" operator="greaterOrEqual" value="35.0"/>
														<Node id="51" score="-0.11227799">
															<SimplePredicate field="Employment" operator="notEqual" value="Private"/>
														</Node>
														<Node id="52" score="0.05667639">
															<SimplePredicate field="Employment" operator="equal" value="Private"/>
														</Node>
													</Node>
												</Node>
											</Node>
										</Node>
									</Node>
									<Node id="2" defaultChild="5">
										<SimplePredicate field="Marital" operator="equal" value="Married"/>
										<Node id="5" defaultChild="12">
											<SimplePredicate field="Education" operator="notEqual" value="Professional"/>
											<Node id="11" score="-0.19047782">
												<SimplePredicate field="float(Age)" operator="lessThan" value="35.0"/>
											</Node>
											<Node id="12" score="0.21067747">
												<SimplePredicate field="float(Age)" operator="greaterOrEqual" value="35.0"/>
											</Node>
										</Node>
										<Node id="6" defaultChild="13">
											<SimplePredicate field="Education" operator="equal" value="Professional"/>
											<Node id="13" defaultChild="22">
												<SimplePredicate field="Education" operator="notEqual" value="Doctorate"/>
												<Node id="21" score="-0.06893057">
													<SimplePredicate field="float(Income)" operator="lessThan" value="76539.28"/>
												</Node>
												<Node id="22" score="0.0689306">
													<SimplePredicate field="float(Income)" operator="greaterOrEqual" value="76539.28"/>
												</Node>
											</Node>
											<Node id="14" defaultChild="23">
												<SimplePredicate field="Education" operator="equal" value="Doctorate"/>
												<Node id="23" defaultChild="36">
													<SimplePredicate field="Education" operator="notEqual" value="Bachelor"/>
													<Node id="35" defaultChild="53">
														<SimplePredicate field="float(Age)" operator="lessThan" value="41.0"/>
														<Node id="53" score="-0.017523453">
															<SimplePredicate field="Marital" operator="notEqual" value="Unmarried"/>
														</Node>
														<Node id="54" score="-0.38903666">
															<SimplePredicate field="Marital" operator="equal" value="Unmarried"/>
														</Node>
													</Node>
													<Node id="36" defaultChild="56">
														<SimplePredicate field="float(Age)" operator="greaterOrEqual" value="41.0"/>
														<Node id="55" score="0.10475444">
															<SimplePredicate field="float(Income)" operator="lessThan" value="46002.84"/>
														</Node>
														<Node id="56" score="-0.27584168">
															<SimplePredicate field="float(Income)" operator="greaterOrEqual" value="46002.84"/>
														</Node>
													</Node>
												</Node>
												<Node id="24" defaultChild="37">
													<SimplePredicate field="Education" operator="equal" value="Bachelor"/>
													<Node id="37" defaultChild="58">
														<SimplePredicate field="Education" operator="notEqual" value="Associate"/>
														<Node id="57" score="-0.054102067">
															<SimplePredicate field="float(Age)" operator="lessThan" value="24.999998"/>
														</Node>
														<Node id="58" score="-0.31553087">
															<SimplePredicate field="float(Age)" operator="greaterOrEqual" value="24.999998"/>
														</Node>
													</Node>
													<Node id="38" defaultChild="59">
														<SimplePredicate field="Education" operator="equal" value="Associate"/>
														<Node id="59" score="-0.28372845">
															<SimplePredicate field="Education" operator="notEqual" value="Master"/>
														</Node>
														<Node id="60" score="-0.442639">
															<SimplePredicate field="Education" operator="equal" value="Master"/>
														</Node>
													</Node>
												</Node>
											</Node>
										</Node>
									</Node>
								</Node>
							</TreeModel>
						</Segment>
						<Segment id="3">
							<True/>
							<TreeModel functionName="regression" missingValueStrategy="defaultChild" splitCharacteristic="binarySplit" x-mathContext="float">
								<MiningSchema>
									<MiningField name="Employment"/>
									<MiningField name="Education"/>
									<MiningField name="Marital"/>
									<MiningField name="Occupation"/>
									<MiningField name="Gender"/>
									<MiningField name="float(Age)"/>
									<MiningField name="float(Income)"/>
									<MiningField name="float(Hours)"/>
									<MiningField name="float(Deductions=true)"/>
								</MiningSchema>
								<Node id="0" defaultChild="1">
									<True/>
									<Node id="1" defaultChild="3">
										<SimplePredicate field="Marital" operator="notEqual" value="Married"/>
										<Node id="3" defaultChild="8">
											<SimplePredicate field="Occupation" operator="notEqual" value="Executive"/>
											<Node id="7" score="0.4066927">
												<SimplePredicate field="float(Deductions=true)" operator="lessThan" value="2.000001"/>
											</Node>
											<Node id="8" defaultChild="15">
												<SimplePredicate field="float(Deductions=true)" operator="greaterOrEqual" value="2.000001"/>
												<Node id="15" defaultChild="28">
													<SimplePredicate field="Employment" operator="notEqual" value="Consultant"/>
													<Node id="27" score="-0.30322918">
														<SimplePredicate field="float(Income)" operator="lessThan" value="35359.0"/>
													</Node>
													<Node id="28" defaultChild="50">
														<SimplePredicate field="float(Income)" operator="greaterOrEqual" value="35359.0"/>
														<Node id="49" score="-0.14744003">
															<SimplePredicate field="float(Hours)" operator="lessThan" value="41.0"/>
														</Node>
														<Node id="50" score="-0.02203012">
															<SimplePredicate field="float(Hours)" operator="greaterOrEqual" value="41.0"/>
														</Node>
													</Node>
												</Node>
												<Node id="16" defaultChild="30">
													<SimplePredicate field="Employment" operator="equal" value="Consultant"/>
													<Node id="29" defaultChild="51">
														<SimplePredicate field="float(Age)" operator="lessThan" value="31.999998"/>
														<Node id="51" score="0.06632848">
															<SimplePredicate field="Education" operator="notEqual" value="Bachelor"/>
														</Node>
														<Node id="52" score="-0.1801064">
															<SimplePredicate field="Education" operator="equal" value="Bachelor"/>
														</Node>
													</Node>
													<Node id="30" defaultChild="54">
														<SimplePredicate field="float(Age)" operator="greaterOrEqual" value="31.999998"/>
														<Node id="53" score="0.04023672">
															<SimplePredicate field="float(Income)" operator="lessThan" value="29380.77"/>
														</Node>
														<Node id="54" score="0.23441768">
															<SimplePredicate field="float(Income)" operator="greaterOrEqual" value="29380.77"/>
														</Node>
													</Node>
												</Node>
											</Node>
										</Node>
										<Node id="4" defaultChild="9">
											<SimplePredicate field="Occupation" operator="equal" value="Executive"/>
											<Node id="9" defaultChild="17">
												<SimplePredicate field="Occupation" operator="notEqual" value="Professional"/>
												<Node id="17" defaultChild="32">
													<SimplePredicate field="Education" operator="notEqual" value="College"/>
													<Node id="31" score="-0.2654816">
														<SimplePredicate field="float(Income)" operator="lessThan" value="36556.06"/>
													</Node>
													<Node id="32" score="-0.056996886">
														<SimplePredicate field="float(Income)" operator="greaterOrEqual" value="36556.06"/>
													</Node>
												</Node>
												<Node id="18" defaultChild="34">
													<SimplePredicate field="Education" operator="equal" value="College"/>
													<Node id="33" defaultChild="56">
														<SimplePredicate field="float(Age)" operator="lessThan" value="40.0"/>
														<Node id="55" score="0.20848098">
															<SimplePredicate field="float(Income)" operator="lessThan" value="51515.54"/>
														</Node>
														<Node id="56" score="0.38593784">
															<SimplePredicate field="float(Income)" operator="greaterOrEqual" value="51515.54"/>
														</Node>
													</Node>
													<Node id="34" defaultChild="58">
														<SimplePredicate field="float(Age)" operator="greaterOrEqual" value="40.0"/>
														<Node id="57" score="-0.08183164">
															<SimplePredicate field="float(Age)" operator="lessThan" value="48.0"/>
														</Node>
														<Node id="58" score="0.20105521">
															<SimplePredicate field="float(Age)" operator="greaterOrEqual" value="48.0"/>
														</Node>
													</Node>
												</Node>
											</Node>
											<Node id="10" defaultChild="20">
												<SimplePredicate field="Occupation" operator="equal" value="Professional"/>
												<Node id="19" defaultChild="36">
													<SimplePredicate field="float(Hours)" operator="lessThan" value="42.0"/>
													<Node id="35" defaultChild="60">
														<SimplePredicate field="float(Age)" operator="lessThan" value="44.0"/>
														<Node id="59" score="-0.38611674">
															<SimplePredicate field="float(Hours)" operator="lessThan" value="40.0"/>
														</Node>
														<Node id="60" score="-0.2255319">
															<SimplePredicate field="float(Hours)" operator="greaterOrEqual" value="40.0"/>
														</Node>
													</Node>
													<Node id="36" defaultChild="62">
														<SimplePredicate field="float(Age)" operator="greaterOrEqual" value="44.0"/>
														<Node id="61" score="-0.14623243">
															<SimplePredicate field="float(Income)" operator="lessThan" value="62300.23"/>
														</Node>
														<Node id="62" score="0.26510745">
															<SimplePredicate field="float(Income)" operator="greaterOrEqual" value="62300.23"/>
														</Node>
													</Node>
												</Node>
												<Node id="20" defaultChild="38">
													<SimplePredicate field="float(Hours)" operator="greaterOrEqual" value="42.0"/>
													<Node id="37" score="0.40079737">
														<SimplePredicate field="float(Hours)" operator="lessThan" value="43.0"/>
													</Node>
													<Node id="38" defaultChild="63">
														<SimplePredicate field="float(Hours)" operator="greaterOrEqual" value="43.0"/>
														<Node id="63" score="0.112982616">
															<SimplePredicate field="Occupation" operator="notEqual" value="Sales"/>
														</Node>
														<Node id="64" score="-0.08634868">
															<SimplePredicate field="Occupation" operator="equal" value="Sales"/>
														</Node>
													</Node>
												</Node>
											</Node>
										</Node>
									</Node>
									<Node id="2" defaultChild="6">
										<SimplePredicate field="Marital" operator="equal" value="Married"/>
										<Node id="5" defaultChild="11">
											<SimplePredicate field="float(Hours)" operator="lessThan" value="50.0"/>
											<Node id="11" defaultChild="22">
												<SimplePredicate field="Occupation" operator="notEqual" value="Professional"/>
												<Node id="21" defaultChild="39">
													<SimplePredicate field="float(Age)" operator="lessThan" value="48.0"/>
													<Node id="39" defaultChild="66">
														<SimplePredicate field="Gender" operator="notEqual" value="Male"/>
														<Node id="65" score="-0.28054747">
															<SimplePredicate field="float(Age)" operator="lessThan" value="31.999998"/>
														</Node>
														<Node id="66" score="0.042483013">
															<SimplePredicate field="float(Age)" operator="greaterOrEqual" value="31.999998"/>
														</Node>
													</Node>
													<Node id="40" score="-0.36531827">
														<SimplePredicate field="Gender" operator="equal" value="Male"/>
													</Node>
												</Node>
												<Node id="22" defaultChild="42">
													<SimplePredicate field="float(Age)" operator="greaterOrEqual" value="48.0"/>
													<Node id="41" defaultChild="67">
														<SimplePredicate field="float(Income)" operator="lessThan" value="76211.05"/>
														<Node id="67" score="-0.095303975">
															<SimplePredicate field="Education" operator="notEqual" value="Master"/>
														</Node>
														<Node id="68" score="0.22498482">
															<SimplePredicate field="Education" operator="equal" value="Master"/>
														</Node>
													</Node>
													<Node id="42" defaultChild="70">
														<SimplePredicate field="float(Income)" operator="greaterOrEqual" value="76211.05"/>
														<Node id="69" score="0.043564595">
															<SimplePredicate field="float(Age)" operator="lessThan" value="52.0"/>
														</Node>
														<Node id="70" score="-0.29523396">
															<SimplePredicate field="float(Age)" operator="greaterOrEqual" value="52.0"/>
														</Node>
													</Node>
												</Node>
											</Node>
											<Node id="12" defaultChild="23">
												<SimplePredicate field="Occupation" operator="equal" value="Professional"/>
												<Node id="23" score="-0.048724644">
													<SimplePredicate field="Education" operator="notEqual" value="Master"/>
												</Node>
												<Node id="24" defaultChild="44">
													<SimplePredicate field="Education" operator="equal" value="Master"/>
													<Node id="43" defaultChild="72">
														<SimplePredicate field="float(Deductions=true)" operator="lessThan" value="2.000001"/>
														<Node id="71" score="0.11162408">
															<SimplePredicate field="float(Income)" operator="lessThan" value="47378.48"/>
														</Node>
														<Node id="72" score="-0.30122402">
															<SimplePredicate field="float(Income)" operator="greaterOrEqual" value="47378.48"/>
														</Node>
													</Node>
													<Node id="44" score="-0.3856077">
														<SimplePredicate field="float(Deductions=true)" operator="greaterOrEqual" value="2.000001"/>
													</Node>
												</Node>
											</Node>
										</Node>
										<Node id="6" defaultChild="13">
											<SimplePredicate field="float(Hours)" operator="greaterOrEqual" value="50.0"/>
											<Node id="13" score="0.14996573">
												<SimplePredicate field="Education" operator="notEqual" value="Professional"/>
											</Node>
											<Node id="14" defaultChild="25">
												<SimplePredicate field="Education" operator="equal" value="Professional"/>
												<Node id="25" defaultChild="46">
													<SimplePredicate field="Occupation" operator="notEqual" value="Executive"/>
													<Node id="45" defaultChild="74">
														<SimplePredicate field="float(Income)" operator="lessThan" value="79749.71"/>
														<Node id="73" score="-0.09468069">
															<SimplePredicate field="float(Age)" operator="lessThan" value="30.999998"/>
														</Node>
														<Node id="74" score="0.1838657">
															<SimplePredicate field="float(Age)" operator="greaterOrEqual" value="30.999998"/>
														</Node>
													</Node>
													<Node id="46" defaultChild="76">
														<SimplePredicate field="float(Income)" operator="greaterOrEqual" value="79749.71"/>
														<Node id="75" score="-0.072097614">
															<SimplePredicate field="float(Age)" operator="lessThan" value="44.0"/>
														</Node>
														<Node id="76" score="-0.2704374">
															<SimplePredicate field="float(Age)" operator="greaterOrEqual" value="44.0"/>
														</Node>
													</Node>
												</Node>
												<Node id="26" defaultChild="48">
													<SimplePredicate field="Occupation" operator="equal" value="Executive"/>
													<Node id="47" defaultChild="78">
														<SimplePredicate field="float(Age)" operator="lessThan" value="53.0"/>
														<Node id="77" score="-0.28820038">
															<SimplePredicate field="float(Hours)" operator="lessThan" value="75.0"/>
														</Node>
														<Node id="78" score="-0.07046936">
															<SimplePredicate field="float(Hours)" operator="greaterOrEqual" value="75.0"/>
														</Node>
													</Node>
													<Node id="48" score="0.03249775">
														<SimplePredicate field="float(Age)" operator="greaterOrEqual" value="53.0"/>
													</Node>
												</Node>
											</Node>
										</Node>
									</Node>
								</Node>
							</TreeModel>
						</Segment>
						<Segment id="4">
							<True/>
							<TreeModel functionName="regression" missingValueStrategy="defaultChild" splitCharacteristic="binarySplit" x-mathContext="float">
								<MiningSchema>
									<MiningField name="Employment"/>
									<MiningField name="Education"/>
									<MiningField name="Marital"/>
									<MiningField name="Occupation"/>
									<MiningField name="Gender"/>
									<MiningField name="float(Age)"/>
									<MiningField name="float(Income)"/>
									<MiningField name="float(Hours)"/>
									<MiningField name="float(Deductions=true)"/>
								</MiningSchema>
								<Node id="0" defaultChild="1">
									<True/>
									<Node id="1" defaultChild="3">
										<SimplePredicate field="Marital" operator="notEqual" value="Married"/>
										<Node id="3" defaultChild="8">
											<SimplePredicate field="Education" operator="notEqual" value="Master"/>
											<Node id="7" score="-0.04080301">
												<SimplePredicate field="float(Hours)" operator="lessThan" value="20.999998"/>
											</Node>
											<Node id="8" defaultChild="16">
												<SimplePredicate field="float(Hours)" operator="greaterOrEqual" value="20.999998"/>
												<Node id="15" score="-0.0029641963">
													<SimplePredicate field="float(Income)" operator="lessThan" value="14387.48"/>
												</Node>
												<Node id="16" defaultChild="28">
													<SimplePredicate field="float(Income)" operator="greaterOrEqual" value="14387.48"/>
													<Node id="27" score="0.3873931">
														<SimplePredicate field="float(Hours)" operator="lessThan" value="48.0"/>
													</Node>
													<Node id="28" defaultChild="48">
														<SimplePredicate field="float(Hours)" operator="greaterOrEqual" value="48.0"/>
														<Node id="47" score="0.30504328">
															<SimplePredicate field="float(Age)" operator="lessThan" value="46.0"/>
														</Node>
														<Node id="48" score="-0.106222324">
															<SimplePredicate field="float(Age)" operator="greaterOrEqual" value="46.0"/>
														</Node>
													</Node>
												</Node>
											</Node>
										</Node>
										<Node id="4" defaultChild="9">
											<SimplePredicate field="Education" operator="equal" value="Master"/>
											<Node id="9" defaultChild="17">
												<SimplePredicate field="Education" operator="notEqual" value="Bachelor"/>
												<Node id="17" defaultChild="29">
													<SimplePredicate field="Employment" operator="notEqual" value="Private"/>
													<Node id="29" score="-0.23710659">
														<SimplePredicate field="Occupation" operator="notEqual" value="Repair"/>
													</Node>
													<Node id="30" defaultChild="50">
														<SimplePredicate field="Occupation" operator="equal" value="Repair"/>
														<Node id="49" score="0.079332635">
															<SimplePredicate field="float(Hours)" operator="lessThan" value="41.0"/>
														</Node>
														<Node id="50" score="0.2604605">
															<SimplePredicate field="float(Hours)" operator="greaterOrEqual" value="41.0"/>
														</Node>
													</Node>
												</Node>
												<Node id="18" defaultChild="31">
													<SimplePredicate field="Employment" operator="equal" value="Private"/>
													<Node id="31" score="0.26254988">
														<SimplePredicate field="Occupation" operator="notEqual" value="Protective"/>
													</Node>
													<Node id="32" defaultChild="52">
														<SimplePredicate field="Occupation" operator="equal" value="Protective"/>
														<Node id="51" score="-0.23297957">
															<SimplePredicate field="float(Hours)" operator="lessThan" value="49.0"/>
														</Node>
														<Node id="52" score="0.020832768">
															<SimplePredicate field="float(Hours)" operator="greaterOrEqual" value="49.0"/>
														</Node>
													</Node>
												</Node>
											</Node>
											<Node id="10" defaultChild="20">
												<SimplePredicate field="Education" operator="equal" value="Bachelor"/>
												<Node id="19" defaultChild="34">
													<SimplePredicate field="float(Deductions=true)" operator="lessThan" value="2.000001"/>
													<Node id="33" defaultChild="54">
														<SimplePredicate field="float(Age)" operator="lessThan" value="60.0"/>
														<Node id="53" score="0.05416496">
															<SimplePredicate field="float(Income)" operator="lessThan" value="30033.75"/>
														</Node>
														<Node id="54" score="0.28587112">
															<SimplePredicate field="float(Income)" operator="greaterOrEqual" value="30033.75"/>
														</Node>
													</Node>
													<Node id="34" score="-0.08000911">
														<SimplePredicate field="float(Age)" operator="greaterOrEqual" value="60.0"/>
													</Node>
												</Node>
												<Node id="20" defaultChild="35">
													<SimplePredicate field="float(Deductions=true)" operator="greaterOrEqual" value="2.000001"/>
													<Node id="35" defaultChild="55">
														<SimplePredicate field="Education" operator="notEqual" value="College"/>
														<Node id="55" score="0.24206187">
															<SimplePredicate field="Occupation" operator="notEqual" value="Clerical"/>
														</Node>
														<Node id="56" score="-0.016757088">
															<SimplePredicate field="Occupation" operator="equal" value="Clerical"/>
														</Node>
													</Node>
													<Node id="36" defaultChild="57">
														<SimplePredicate field="Education" operator="equal" value="College"/>
														<Node id="57" score="0.2039856">
															<SimplePredicate field="Occupation" operator="notEqual" value="Professional"/>
														</Node>
														<Node id="58" score="-0.16170849">
															<SimplePredicate field="Occupation" operator="equal" value="Professional"/>
														</Node>
													</Node>
												</Node>
											</Node>
										</Node>
									</Node>
									<Node id="2" defaultChild="6">
										<SimplePredicate field="Marital" operator="equal" value="Married"/>
										<Node id="5" defaultChild="11">
											<SimplePredicate field="float(Hours)" operator="lessThan" value="50.0"/>
											<Node id="11" defaultChild="22">
												<SimplePredicate field="Occupation" operator="notEqual" value="Professional"/>
												<Node id="21" defaultChild="37">
													<SimplePredicate field="float(Age)" operator="lessThan" value="48.0"/>
													<Node id="37" defaultChild="60">
														<SimplePredicate field="Gender" operator="notEqual" value="Male"/>
														<Node id="59" score="-0.2401392">
															<SimplePredicate field="float(Age)" operator="lessThan" value="31.999998"/>
														</Node>
														<Node id="60" score="0.032575957">
															<SimplePredicate field="float(Age)" operator="greaterOrEqual" value="31.999998"/>
														</Node>
													</Node>
													<Node id="38" defaultChild="62">
														<SimplePredicate field="Gender" operator="equal" value="Male"/>
														<Node id="61" score="-0.07902988">
															<SimplePredicate field="float(Income)" operator="lessThan" value="26562.14"/>
														</Node>
														<Node id="62" score="-0.33150804">
															<SimplePredicate field="float(Income)" operator="greaterOrEqual" value="26562.14"/>
														</Node>
													</Node>
												</Node>
												<Node id="22" defaultChild="40">
													<SimplePredicate field="float(Age)" operator="greaterOrEqual" value="48.0"/>
													<Node id="39" defaultChild="64">
														<SimplePredicate field="float(Income)" operator="lessThan" value="93671.92"/>
														<Node id="63" score="0.17316067">
															<SimplePredicate field="float(Age)" operator="lessThan" value="52.0"/>
														</Node>
														<Node id="64" score="-0.045986995">
															<SimplePredicate field="float(Age)" operator="greaterOrEqual" value="52.0"/>
														</Node>
													</Node>
													<Node id="40" score="-0.18020171">
														<SimplePredicate field="float(Income)" operator="greaterOrEqual" value="93671.92"/>
													</Node>
												</Node>
											</Node>
											<Node id="12" defaultChild="23">
												<SimplePredicate field="Occupation" operator="equal" value="Professional"/>
												<Node id="23" score="-0.04022505">
													<SimplePredicate field="Education" operator="notEqual" value="Master"/>
												</Node>
												<Node id="24" defaultChild="42">
													<SimplePredicate field="Education" operator="equal" value="Master"/>
													<Node id="41" defaultChild="66">
														<SimplePredicate field="float(Deductions=true)" operator="lessThan" value="2.000001"/>
														<Node id="65" score="0.091157004">
															<SimplePredicate field="float(Income)" operator="lessThan" value="48397.69"/>
														</Node>
														<Node id="66" score="-0.2600933">
															<SimplePredicate field="float(Income)" operator="greaterOrEqual" value="48397.69"/>
														</Node>
													</Node>
													<Node id="42" defaultChild="68">
														<SimplePredicate field="float(Deductions=true)" operator="greaterOrEqual" value="2.000001"/>
														<Node id="67" score="-0.34857702">
															<SimplePredicate field="float(Age)" operator="lessThan" value="58.0"/>
														</Node>
														<Node id="68" score="-0.22253571">
															<SimplePredicate field="float(Age)" operator="greaterOrEqual" value="58.0"/>
														</Node>
													</Node>
												</Node>
											</Node>
										</Node>
										<Node id="6" defaultChild="14">
											<SimplePredicate field="float(Hours)" operator="greaterOrEqual" value="50.0"/>
											<Node id="13" defaultChild="26">
												<SimplePredicate field="float(Income)" operator="lessThan" value="131926.03"/>
												<Node id="25" defaultChild="43">
													<SimplePredicate field="float(Age)" operator="lessThan" value="39.0"/>
													<Node id="43" score="0.1019774">
														<SimplePredicate field="Occupation" operator="notEqual" value="Professional"/>
													</Node>
													<Node id="44" defaultChild="69">
														<SimplePredicate field="Occupation" operator="equal" value="Professional"/>
														<Node id="69" score="-0.015585302">
															<SimplePredicate field="Occupation" operator="notEqual" value="Executive"/>
														</Node>
														<Node id="70" score="-0.27272788">
															<SimplePredicate field="Occupation" operator="equal" value="Executive"/>
														</Node>
													</Node>
												</Node>
												<Node id="26" defaultChild="46">
													<SimplePredicate field="float(Age)" operator="greaterOrEqual" value="39.0"/>
													<Node id="45" defaultChild="71">
														<SimplePredicate field="float(Hours)" operator="lessThan" value="58.0"/>
														<Node id="71" score="0.24224357">
															<SimplePredicate field="Marital" operator="notEqual" value="Absent"/>
														</Node>
														<Node id="72" score="0.012763843">
															<SimplePredicate field="Marital" operator="equal" value="Absent"/>
														</Node>
													</Node>
													<Node id="46" defaultChild="74">
														<SimplePredicate field="float(Hours)" operator="greaterOrEqual" value="58.0"/>
														<Node id="73" score="-0.0011123328">
															<SimplePredicate field="float(Income)" operator="lessThan" value="81147.27"/>
														</Node>
														<Node id="74" score="-0.24096246">
															<SimplePredicate field="float(Income)" operator="greaterOrEqual" value="81147.27"/>
														</Node>
													</Node>
												</Node>
											</Node>
											<Node id="14" score="-0.33765966">
												<SimplePredicate field="float(Income)" operator="greaterOrEqual" value="131926.03"/>
											</Node>
										</Node>
									</Node>
								</Node>
							</TreeModel>
						</Segment>
						<Segment id="5">
							<True/>
							<TreeModel functionName="regression" missingValueStrategy="defaultChild" splitCharacteristic="binarySplit" x-mathContext="float">
								<MiningSchema>
									<MiningField name="Employment"/>
									<MiningField name="Education"/>
									<MiningField name="Marital"/>
									<MiningField name="Occupation"/>
									<MiningField name="Gender"/>
									<MiningField name="float(Age)"/>
									<MiningField name="float(Income)"/>
									<MiningField name="float(Hours)"/>
									<MiningField name="float(Deductions=true)"/>
								</MiningSchema>
								<Node id="0" defaultChild="1">
									<True/>
									<Node id="1" defaultChild="3">
										<SimplePredicate field="Marital" operator="notEqual" value="Married"/>
										<Node id="3" defaultChild="8">
											<SimplePredicate field="Occupation" operator="notEqual" value="Executive"/>
											<Node id="7" score="0.3282752">
												<SimplePredicate field="float(Deductions=true)" operator="lessThan" value="2.000001"/>
											</Node>
											<Node id="8" defaultChild="15">
												<SimplePredicate field="float(Deductions=true)" operator="greaterOrEqual" value="2.000001"/>
												<Node id="15" defaultChild="28">
													<SimplePredicate field="Employment" operator="notEqual" value="Consultant"/>
													<Node id="27" score="-0.24735177">
														<SimplePredicate field="float(Income)" operator="lessThan" value="35352.57"/>
													</Node>
													<Node id="28" defaultChild="48">
														<SimplePredicate field="float(Income)" operator="greaterOrEqual" value="35352.57"/>
														<Node id="47" score="0.012006011">
															<SimplePredicate field="float(Age)" operator="lessThan" value="54.0"/>
														</Node>
														<Node id="48" score="-0.11864701">
															<SimplePredicate field="float(Age)" operator="greaterOrEqual" value="54.0"/>
														</Node>
													</Node>
												</Node>
												<Node id="16" defaultChild="30">
													<SimplePredicate field="Employment" operator="equal" value="Consultant"/>
													<Node id="29" defaultChild="50">
														<SimplePredicate field="float(Age)" operator="lessThan" value="31.999998"/>
														<Node id="49" score="-0.1622197">
															<SimplePredicate field="float(Income)" operator="lessThan" value="41057.13"/>
														</Node>
														<Node id="50" score="0.03022234">
															<SimplePredicate field="float(Income)" operator="greaterOrEqual" value="41057.13"/>
														</Node>
													</Node>
													<Node id="30" defaultChild="52">
														<SimplePredicate field="float(Age)" operator="greaterOrEqual" value="31.999998"/>
														<Node id="51" score="0.18993789">
															<SimplePredicate field="float(Age)" operator="lessThan" value="52.0"/>
														</Node>
														<Node id="52" score="0.008992594">
															<SimplePredicate field="float(Age)" operator="greaterOrEqual" value="52.0"/>
														</Node>
													</Node>
												</Node>
											</Node>
										</Node>
										<Node id="4" defaultChild="10">
											<SimplePredicate field="Occupation" operator="equal" value="Executive"/>
											<Node id="9" defaultChild="18">
												<SimplePredicate field="float(Hours)" operator="lessThan" value="42.0"/>
												<Node id="17" defaultChild="32">
													<SimplePredicate field="float(Income)" operator="lessThan" value="53313.24"/>
													<Node id="31" defaultChild="54">
														<SimplePredicate field="float(Deductions=true)" operator="lessThan" value="2.000001"/>
														<Node id="53" score="0.18508309">
															<SimplePredicate field="float(Age)" operator="lessThan" value="55.0"/>
														</Node>
														<Node id="54" score="-0.008897472">
															<SimplePredicate field="float(Age)" operator="greaterOrEqual" value="55.0"/>
														</Node>
													</Node>
													<Node id="32" defaultChild="55">
														<SimplePredicate field="float(Deductions=true)" operator="greaterOrEqual" value="2.000001"/>
														<Node id="55" score="-0.1926821">
															<SimplePredicate field="Employment" operator="notEqual" value="Private"/>
														</Node>
														<Node id="56" score="-0.049298123">
															<SimplePredicate field="Employment" operator="equal" value="Private"/>
														</Node>
													</Node>
												</Node>
												<Node id="18" defaultChild="33">
													<SimplePredicate field="float(Income)" operator="greaterOrEqual" value="53313.24"/>
													<Node id="33" score="-0.30780575">
														<SimplePredicate field="Occupation" operator="notEqual" value="Transport"/>
													</Node>
													<Node id="34" defaultChild="58">
														<SimplePredicate field="Occupation" operator="equal" value="Transport"/>
														<Node id="57" score="-0.012364008">
															<SimplePredicate field="float(Age)" operator="lessThan" value="44.0"/>
														</Node>
														<Node id="58" score="0.17804354">
															<SimplePredicate field="float(Age)" operator="greaterOrEqual" value="44.0"/>
														</Node>
													</Node>
												</Node>
											</Node>
											<Node id="10" defaultChild="20">
												<SimplePredicate field="float(Hours)" operator="greaterOrEqual" value="42.0"/>
												<Node id="19" defaultChild="36">
													<SimplePredicate field="float(Income)" operator="lessThan" value="59534.87"/>
													<Node id="35" defaultChild="60">
														<SimplePredicate field="float(Age)" operator="lessThan" value="36.0"/>
														<Node id="59" score="0.19581416">
															<SimplePredicate field="float(Hours)" operator="lessThan" value="44.0"/>
														</Node>
														<Node id="60" score="-0.12864445">
															<SimplePredicate field="float(Hours)" operator="greaterOrEqual" value="44.0"/>
														</Node>
													</Node>
													<Node id="36" defaultChild="61">
														<SimplePredicate field="float(Age)" operator="greaterOrEqual" value="36.0"/>
														<Node id="61" score="-0.11081472">
															<SimplePredicate field="Employment" operator="notEqual" value="Consultant"/>
														</Node>
														<Node id="62" score="0.09658783">
															<SimplePredicate field="Employment" operator="equal" value="Consultant"/>
														</Node>
													</Node>
												</Node>
												<Node id="20" defaultChild="38">
													<SimplePredicate field="float(Income)" operator="greaterOrEqual" value="59534.87"/>
													<Node id="37" defaultChild="63">
														<SimplePredicate field="float(Income)" operator="lessThan" value="197192.92"/>
														<Node id="63" score="0.09213473">
															<SimplePredicate field="Employment" operator="notEqual" value="Consultant"/>
														</Node>
														<Node id="64" score="0.37871438">
															<SimplePredicate field="Employment" operator="equal" value="Consultant"/>
														</Node>
													</Node>
													<Node id="38" score="-0.07863383">
														<SimplePredicate field="float(Income)" operator="greaterOrEqual" value="197192.92"/>
													</Node>
												</Node>
											</Node>
										</Node>
									</Node>
									<Node id="2" defaultChild="6">
										<SimplePredicate field="Marital" operator="equal" value="Married"/>
										<Node id="5" defaultChild="12">
											<SimplePredicate field="float(Hours)" operator="lessThan" value="50.0"/>
											<Node id="11" defaultChild="21">
												<SimplePredicate field="float(Age)" operator="lessThan" value="39.0"/>
												<Node id="21" defaultChild="40">
													<SimplePredicate field="Education" operator="notEqual" value="Associate"/>
													<Node id="39" score="-0.23306964">
														<SimplePredicate field="float(Income)" operator="lessThan" value="76539.28"/>
													</Node>
													<Node id="40" defaultChild="66">
														<SimplePredicate field="float(Income)" operator="greaterOrEqual" value="76539.28"/>
														<Node id="65" score="0.10633066">
															<SimplePredicate field="float(Income)" operator="lessThan" value="134671.12"/>
														</Node>
														<Node id="66" score="-0.04386625">
															<SimplePredicate field="float(Income)" operator="greaterOrEqual" value="134671.12"/>
														</Node>
													</Node>
												</Node>
												<Node id="22" score="-0.32743344">
													<SimplePredicate field="Education" operator="equal" value="Associate"/>
												</Node>
											</Node>
											<Node id="12" defaultChild="23">
												<SimplePredicate field="float(Age)" operator="greaterOrEqual" value="39.0"/>
												<Node id="23" defaultChild="41">
													<SimplePredicate field="Occupation" operator="notEqual" value="Professional"/>
													<Node id="41" defaultChild="68">
														<SimplePredicate field="Marital" operator="notEqual" value="Divorced"/>
														<Node id="67" score="-0.037297767">
															<SimplePredicate field="float(Income)" operator="lessThan" value="64358.33"/>
														</Node>
														<Node id="68" score="-0.25502372">
															<SimplePredicate field="float(Income)" operator="greaterOrEqual" value="64358.33"/>
														</Node>
													</Node>
													<Node id="42" defaultChild="69">
														<SimplePredicate field="Marital" operator="equal" value="Divorced"/>
														<Node id="69" score="0.23625974">
															<SimplePredicate field="Gender" operator="notEqual" value="Male"/>
														</Node>
														<Node id="70" score="-0.15509912">
															<SimplePredicate field="Gender" operator="equal" value="Male"/>
														</Node>
													</Node>
												</Node>
												<Node id="24" defaultChild="44">
													<SimplePredicate field="Occupation" operator="equal" value="Professional"/>
													<Node id="43" defaultChild="72">
														<SimplePredicate field="float(Hours)" operator="lessThan" value="41.0"/>
														<Node id="71" score="-0.1554253">
															<SimplePredicate field="float(Age)" operator="lessThan" value="43.0"/>
														</Node>
														<Node id="72" score="-0.31041002">
															<SimplePredicate field="float(Age)" operator="greaterOrEqual" value="43.0"/>
														</Node>
													</Node>
													<Node id="44" defaultChild="74">
														<SimplePredicate field="float(Hours)" operator="greaterOrEqual" value="41.0"/>
														<Node id="73" score="0.10148056">
															<SimplePredicate field="float(Hours)" operator="lessThan" value="45.0"/>
														</Node>
														<Node id="74" score="-0.16292143">
															<SimplePredicate field="float(Hours)" operator="greaterOrEqual" value="45.0"/>
														</Node>
													</Node>
												</Node>
											</Node>
										</Node>
										<Node id="6" defaultChild="13">
											<SimplePredicate field="float(Hours)" operator="greaterOrEqual" value="50.0"/>
											<Node id="13" score="0.13560116">
												<SimplePredicate field="Education" operator="notEqual" value="Professional"/>
											</Node>
											<Node id="14" defaultChild="25">
												<SimplePredicate field="Education" operator="equal" value="Professional"/>
												<Node id="25" score="0.0958718">
													<SimplePredicate field="Marital" operator="notEqual" value="Unmarried"/>
												</Node>
												<Node id="26" defaultChild="45">
													<SimplePredicate field="Marital" operator="equal" value="Unmarried"/>
													<Node id="45" defaultChild="76">
														<SimplePredicate field="Occupation" operator="notEqual" value="Professional"/>
														<Node id="75" score="0.19480802">
															<SimplePredicate field="float(Hours)" operator="lessThan" value="56.0"/>
														</Node>
														<Node id="76" score="-0.14365828">
															<SimplePredicate field="float(Hours)" operator="greaterOrEqual" value="56.0"/>
														</Node>
													</Node>
													<Node id="46" defaultChild="78">
														<SimplePredicate field="Occupation" operator="equal" value="Professional"/>
														<Node id="77" score="-0.25400323">
															<SimplePredicate field="float(Age)" operator="lessThan" value="37.0"/>
														</Node>
														<Node id="78" score="-0.11012984">
															<SimplePredicate field="float(Age)" operator="greaterOrEqual" value="37.0"/>
														</Node>
													</Node>
												</Node>
											</Node>
										</Node>
									</Node>
								</Node>
							</TreeModel>
						</Segment>
						<Segment id="6">
							<True/>
							<TreeModel functionName="regression" missingValueStrategy="defaultChild" splitCharacteristic="binarySplit" x-mathContext="float">
								<MiningSchema>
									<MiningField name="Employment"/>
									<MiningField name="Education"/>
									<MiningField name="Marital"/>
									<MiningField name="Occupation"/>
									<MiningField name="float(Age)"/>
									<MiningField name="float(Income)"/>
									<MiningField name="float(Hours)"/>
								</MiningSchema>
								<Node id="0" defaultChild="1">
									<True/>
									<Node id="1" defaultChild="3">
										<SimplePredicate field="Marital" operator="notEqual" value="Married"/>
										<Node id="3" defaultChild="8">
											<SimplePredicate field="Occupation" operator="notEqual" value="Service"/>
											<Node id="7" defaultChild="15">
												<SimplePredicate field="float(Age)" operator="lessThan" value="58.0"/>
												<Node id="15" score="-0.10163947">
													<SimplePredicate field="Education" operator="notEqual" value="College"/>
												</Node>
												<Node id="16" defaultChild="28">
													<SimplePredicate field="Education" operator="equal" value="College"/>
													<Node id="27" score="-0.068414755">
														<SimplePredicate field="float(Hours)" operator="lessThan" value="30.999998"/>
													</Node>
													<Node id="28" defaultChild="46">
														<SimplePredicate field="float(Hours)" operator="greaterOrEqual" value="30.999998"/>
														<Node id="45" score="-0.34312114">
															<SimplePredicate field="float(Age)" operator="lessThan" value="44.0"/>
														</Node>
														<Node id="46" score="-0.12730949">
															<SimplePredicate field="float(Age)" operator="greaterOrEqual" value="44.0"/>
														</Node>
													</Node>
												</Node>
											</Node>
											<Node id="8" score="-0.025870014">
												<SimplePredicate field="float(Age)" operator="greaterOrEqual" value="58.0"/>
											</Node>
										</Node>
										<Node id="4" defaultChild="10">
											<SimplePredicate field="Occupation" operator="equal" value="Service"/>
											<Node id="9" defaultChild="18">
												<SimplePredicate field="float(Income)" operator="lessThan" value="63012.31"/>
												<Node id="17" defaultChild="30">
													<SimplePredicate field="float(Age)" operator="lessThan" value="37.0"/>
													<Node id="29" defaultChild="48">
														<SimplePredicate field="float(Hours)" operator="lessThan" value="56.0"/>
														<Node id="47" score="-0.10093574">
															<SimplePredicate field="float(Age)" operator="lessThan" value="31.999998"/>
														</Node>
														<Node id="48" score="-0.21338974">
															<SimplePredicate field="float(Age)" operator="greaterOrEqual" value="31.999998"/>
														</Node>
													</Node>
													<Node id="30" defaultChild="50">
														<SimplePredicate field="float(Hours)" operator="greaterOrEqual" value="56.0"/>
														<Node id="49" score="0.23646943">
															<SimplePredicate field="float(Income)" operator="lessThan" value="47116.54"/>
														</Node>
														<Node id="50" score="-0.23005544">
															<SimplePredicate field="float(Income)" operator="greaterOrEqual" value="47116.54"/>
														</Node>
													</Node>
												</Node>
												<Node id="18" defaultChild="31">
													<SimplePredicate field="float(Age)" operator="greaterOrEqual" value="37.0"/>
													<Node id="31" defaultChild="52">
														<SimplePredicate field="Occupation" operator="notEqual" value="Repair"/>
														<Node id="51" score="-0.022676097">
															<SimplePredicate field="float(Age)" operator="lessThan" value="55.0"/>
														</Node>
														<Node id="52" score="-0.3146096">
															<SimplePredicate field="float(Age)" operator="greaterOrEqual" value="55.0"/>
														</Node>
													</Node>
													<Node id="32" defaultChild="54">
														<SimplePredicate field="Occupation" operator="equal" value="Repair"/>
														<Node id="53" score="-0.14860031">
															<SimplePredicate field="float(Hours)" operator="lessThan" value="34.0"/>
														</Node>
														<Node id="54" score="0.075246595">
															<SimplePredicate field="float(Hours)" operator="greaterOrEqual" value="34.0"/>
														</Node>
													</Node>
												</Node>
											</Node>
											<Node id="10" defaultChild="19">
												<SimplePredicate field="float(Income)" operator="greaterOrEqual" value="63012.31"/>
												<Node id="19" score="-0.2539911">
													<SimplePredicate field="Occupation" operator="notEqual" value="Machinist"/>
												</Node>
												<Node id="20" defaultChild="34">
													<SimplePredicate field="Occupation" operator="equal" value="Machinist"/>
													<Node id="33" defaultChild="56">
														<SimplePredicate field="float(Hours)" operator="lessThan" value="37.0"/>
														<Node id="55" score="-0.23332582">
															<SimplePredicate field="float(Age)" operator="lessThan" value="29.999998"/>
														</Node>
														<Node id="56" score="0.13903469">
															<SimplePredicate field="float(Age)" operator="greaterOrEqual" value="29.999998"/>
														</Node>
													</Node>
													<Node id="34" defaultChild="58">
														<SimplePredicate field="float(Hours)" operator="greaterOrEqual" value="37.0"/>
														<Node id="57" score="0.28954273">
															<SimplePredicate field="float(Income)" operator="lessThan" value="230440.98"/>
														</Node>
														<Node id="58" score="0.03797467">
															<SimplePredicate field="float(Income)" operator="greaterOrEqual" value="230440.98"/>
														</Node>
													</Node>
												</Node>
											</Node>
										</Node>
									</Node>
									<Node id="2" defaultChild="6">
										<SimplePredicate field="Marital" operator="equal" value="Married"/>
										<Node id="5" defaultChild="12">
											<SimplePredicate field="float(Age)" operator="lessThan" value="39.0"/>
											<Node id="11" defaultChild="21">
												<SimplePredicate field="float(Hours)" operator="lessThan" value="49.0"/>
												<Node id="21" defaultChild="36">
													<SimplePredicate field="Education" operator="notEqual" value="Associate"/>
													<Node id="35" score="0.08084486">
														<SimplePredicate field="float(Age)" operator="lessThan" value="24.999998"/>
													</Node>
													<Node id="36" score="-0.16749562">
														<SimplePredicate field="float(Age)" operator="greaterOrEqual" value="24.999998"/>
													</Node>
												</Node>
												<Node id="22" defaultChild="37">
													<SimplePredicate field="Education" operator="equal" value="Associate"/>
													<Node id="37" score="-0.10590168">
														<SimplePredicate field="Education" operator="notEqual" value="Master"/>
													</Node>
													<Node id="38" score="-0.30787194">
														<SimplePredicate field="Education" operator="equal" value="Master"/>
													</Node>
												</Node>
											</Node>
											<Node id="12" defaultChild="23">
												<SimplePredicate field="float(Hours)" operator="greaterOrEqual" value="49.0"/>
												<Node id="23" score="0.066272154">
													<SimplePredicate field="Employment" operator="notEqual" value="Consultant"/>
												</Node>
												<Node id="24" defaultChild="39">
													<SimplePredicate field="Employment" operator="equal" value="Consultant"/>
													<Node id="39" defaultChild="59">
														<SimplePredicate field="Occupation" operator="notEqual" value="Executive"/>
														<Node id="59" score="-0.06658371">
															<SimplePredicate field="Marital" operator="notEqual" value="Absent"/>
														</Node>
														<Node id="60" score="0.08147182">
															<SimplePredicate field="Marital" operator="equal" value="Absent"/>
														</Node>
													</Node>
													<Node id="40" defaultChild="62">
														<SimplePredicate field="Occupation" operator="equal" value="Executive"/>
														<Node id="61" score="-0.27468392">
															<SimplePredicate field="float(Income)" operator="lessThan" value="87539.7"/>
														</Node>
														<Node id="62" score="-0.084387794">
															<SimplePredicate field="float(Income)" operator="greaterOrEqual" value="87539.7"/>
														</Node>
													</Node>
												</Node>
											</Node>
										</Node>
										<Node id="6" defaultChild="13">
											<SimplePredicate field="float(Age)" operator="greaterOrEqual" value="39.0"/>
											<Node id="13" score="0.17303337">
												<SimplePredicate field="Education" operator="notEqual" value="Professional"/>
											</Node>
											<Node id="14" defaultChild="25">
												<SimplePredicate field="Education" operator="equal" value="Professional"/>
												<Node id="25" defaultChild="42">
													<SimplePredicate field="Education" operator="notEqual" value="Bachelor"/>
													<Node id="41" defaultChild="64">
														<SimplePredicate field="float(Income)" operator="lessThan" value="65730.21"/>
														<Node id="63" score="0.28662843">
															<SimplePredicate field="float(Age)" operator="lessThan" value="48.0"/>
														</Node>
														<Node id="64" score="-0.045287505">
															<SimplePredicate field="float(Age)" operator="greaterOrEqual" value="48.0"/>
														</Node>
													</Node>
													<Node id="42" defaultChild="65">
														<SimplePredicate field="float(Income)" operator="greaterOrEqual" value="65730.21"/>
														<Node id="65" score="-0.038320426">
															<SimplePredicate field="Occupation" operator="notEqual" value="Professional"/>
														</Node>
														<Node id="66" score="-0.23646004">
															<SimplePredicate field="Occupation" operator="equal" value="Professional"/>
														</Node>
													</Node>
												</Node>
												<Node id="26" defaultChild="44">
													<SimplePredicate field="Education" operator="equal" value="Bachelor"/>
													<Node id="43" defaultChild="67">
														<SimplePredicate field="float(Age)" operator="lessThan" value="40.0"/>
														<Node id="67" score="0.24660227">
															<SimplePredicate field="Marital" operator="notEqual" value="Absent"/>
														</Node>
														<Node id="68" score="-0.19602062">
															<SimplePredicate field="Marital" operator="equal" value="Absent"/>
														</Node>
													</Node>
													<Node id="44" defaultChild="69">
														<SimplePredicate field="float(Age)" operator="greaterOrEqual" value="40.0"/>
														<Node id="69" score="0.056790393">
															<SimplePredicate field="Education" operator="notEqual" value="Doctorate"/>
														</Node>
														<Node id="70" score="-0.23287098">
															<SimplePredicate field="Education" operator="equal" value="Doctorate"/>
														</Node>
													</Node>
												</Node>
											</Node>
										</Node>
									</Node>
								</Node>
							</TreeModel>
						</Segment>
						<Segment id="7">
							<True/>
							<TreeModel functionName="regression" missingValueStrategy="defaultChild" splitCharacteristic="binarySplit" x-mathContext="float">
								<MiningSchema>
									<MiningField name="Employment"/>
									<MiningField name="Education"/>
									<MiningField name="Marital"/>
									<MiningField name="Occupation"/>
									<MiningField name="float(Age)"/>
									<MiningField name="float(Income)"/>
									<MiningField name="float(Hours)"/>
								</MiningSchema>
								<Node id="0" defaultChild="1">
									<True/>
									<Node id="1" defaultChild="3">
										<SimplePredicate field="Marital" operator="notEqual" value="Married"/>
										<Node id="3" defaultChild="7">
											<SimplePredicate field="Education" operator="notEqual" value="Master"/>
											<Node id="7" defaultChild="16">
												<SimplePredicate field="Occupation" operator="notEqual" value="Professional"/>
												<Node id="15" defaultChild="30">
													<SimplePredicate field="float(Income)" operator="lessThan" value="28907.41"/>
													<Node id="29" score="-0.03376247">
														<SimplePredicate field="float(Income)" operator="lessThan" value="22770.44"/>
													</Node>
													<Node id="30" score="0.23223123">
														<SimplePredicate field="float(Income)" operator="greaterOrEqual" value="22770.44"/>
													</Node>
												</Node>
												<Node id="16" defaultChild="32">
													<SimplePredicate field="float(Income)" operator="greaterOrEqual" value="28907.41"/>
													<Node id="31" score="0.116027065">
														<SimplePredicate field="float(Age)" operator="lessThan" value="50.0"/>
													</Node>
													<Node id="32" score="-0.20054625">
														<SimplePredicate field="float(Age)" operator="greaterOrEqual" value="50.0"/>
													</Node>
												</Node>
											</Node>
											<Node id="8" defaultChild="18">
												<SimplePredicate field="Occupation" operator="equal" value="Professional"/>
												<Node id="17" score="0.045635343">
													<SimplePredicate field="float(Age)" operator="lessThan" value="39.0"/>
												</Node>
												<Node id="18" defaultChild="34">
													<SimplePredicate field="float(Age)" operator="greaterOrEqual" value="39.0"/>
													<Node id="33" score="0.34296852">
														<SimplePredicate field="float(Hours)" operator="lessThan" value="48.0"/>
													</Node>
													<Node id="34" score="0.093270846">
														<SimplePredicate field="float(Hours)" operator="greaterOrEqual" value="48.0"/>
													</Node>
												</Node>
											</Node>
										</Node>
										<Node id="4" defaultChild="10">
											<SimplePredicate field="Education" operator="equal" value="Master"/>
											<Node id="9" defaultChild="20">
												<SimplePredicate field="float(Hours)" operator="lessThan" value="38.0"/>
												<Node id="19" defaultChild="36">
													<SimplePredicate field="float(Income)" operator="lessThan" value="101677.29"/>
													<Node id="35" defaultChild="49">
														<SimplePredicate field="float(Income)" operator="lessThan" value="26979.5"/>
														<Node id="49" score="0.22114016">
															<SimplePredicate field="Education" operator="notEqual" value="Bachelor"/>
														</Node>
														<Node id="50" score="-0.11319967">
															<SimplePredicate field="Education" operator="equal" value="Bachelor"/>
														</Node>
													</Node>
													<Node id="36" defaultChild="52">
														<SimplePredicate field="float(Income)" operator="greaterOrEqual" value="26979.5"/>
														<Node id="51" score="-0.11603021">
															<SimplePredicate field="float(Hours)" operator="lessThan" value="15.999999"/>
														</Node>
														<Node id="52" score="-0.3442809">
															<SimplePredicate field="float(Hours)" operator="greaterOrEqual" value="15.999999"/>
														</Node>
													</Node>
												</Node>
												<Node id="20" defaultChild="37">
													<SimplePredicate field="float(Income)" operator="greaterOrEqual" value="101677.29"/>
													<Node id="37" defaultChild="54">
														<SimplePredicate field="Occupation" operator="notEqual" value="Clerical"/>
														<Node id="53" score="-0.033362255">
															<SimplePredicate field="float(Age)" operator="lessThan" value="45.0"/>
														</Node>
														<Node id="54" score="0.21141768">
															<SimplePredicate field="float(Age)" operator="greaterOrEqual" value="45.0"/>
														</Node>
													</Node>
													<Node id="38" defaultChild="55">
														<SimplePredicate field="Occupation" operator="equal" value="Clerical"/>
														<Node id="55" score="0.1622308">
															<SimplePredicate field="Education" operator="notEqual" value="Bachelor"/>
														</Node>
														<Node id="56" score="-0.1977297">
															<SimplePredicate field="Education" operator="equal" value="Bachelor"/>
														</Node>
													</Node>
												</Node>
											</Node>
											<Node id="10" defaultChild="21">
												<SimplePredicate field="float(Hours)" operator="greaterOrEqual" value="38.0"/>
												<Node id="21" score="-0.3352196">
													<SimplePredicate field="Education" operator="notEqual" value="Yr9"/>
												</Node>
												<Node id="22" defaultChild="39">
													<SimplePredicate field="Education" operator="equal" value="Yr9"/>
													<Node id="39" score="-0.30196556">
														<SimplePredicate field="Education" operator="notEqual" value="Yr7t8"/>
													</Node>
													<Node id="40" defaultChild="58">
														<SimplePredicate field="Education" operator="equal" value="Yr7t8"/>
														<Node id="57" score="-0.029902581">
															<SimplePredicate field="float(Age)" operator="lessThan" value="45.0"/>
														</Node>
														<Node id="58" score="0.06328839">
															<SimplePredicate field="float(Age)" operator="greaterOrEqual" value="45.0"/>
														</Node>
													</Node>
												</Node>
											</Node>
										</Node>
									</Node>
									<Node id="2" defaultChild="6">
										<SimplePredicate field="Marital" operator="equal" value="Married"/>
										<Node id="5" defaultChild="11">
											<SimplePredicate field="float(Age)" operator="lessThan" value="27.999998"/>
											<Node id="11" score="-0.049082402">
												<SimplePredicate field="Education" operator="notEqual" value="Associate"/>
											</Node>
											<Node id="12" defaultChild="24">
												<SimplePredicate field="Education" operator="equal" value="Associate"/>
												<Node id="23" score="-0.3111055">
													<SimplePredicate field="float(Hours)" operator="lessThan" value="58.0"/>
												</Node>
												<Node id="24" score="-0.050352138">
													<SimplePredicate field="float(Hours)" operator="greaterOrEqual" value="58.0"/>
												</Node>
											</Node>
										</Node>
										<Node id="6" defaultChild="13">
											<SimplePredicate field="float(Age)" operator="greaterOrEqual" value="27.999998"/>
											<Node id="13" defaultChild="26">
												<SimplePredicate field="Education" operator="notEqual" value="Bachelor"/>
												<Node id="25" defaultChild="42">
													<SimplePredicate field="float(Income)" operator="lessThan" value="34666.62"/>
													<Node id="41" score="0.2219863">
														<SimplePredicate field="float(Age)" operator="lessThan" value="43.0"/>
													</Node>
													<Node id="42" score="-0.014927414">
														<SimplePredicate field="float(Age)" operator="greaterOrEqual" value="43.0"/>
													</Node>
												</Node>
												<Node id="26" defaultChild="43">
													<SimplePredicate field="float(Income)" operator="greaterOrEqual" value="34666.62"/>
													<Node id="43" score="0.16353956">
														<SimplePredicate field="Employment" operator="notEqual" value="Consultant"/>
													</Node>
													<Node id="44" defaultChild="59">
														<SimplePredicate field="Employment" operator="equal" value="Consultant"/>
														<Node id="59" score="-0.008009251">
															<SimplePredicate field="Employment" operator="notEqual" value="Private"/>
														</Node>
														<Node id="60" score="-0.29722485">
															<SimplePredicate field="Employment" operator="equal" value="Private"/>
														</Node>
													</Node>
												</Node>
											</Node>
											<Node id="14" defaultChild="28">
												<SimplePredicate field="Education" operator="equal" value="Bachelor"/>
												<Node id="27" defaultChild="46">
													<SimplePredicate field="float(Income)" operator="lessThan" value="114400.18"/>
													<Node id="45" defaultChild="62">
														<SimplePredicate field="float(Hours)" operator="lessThan" value="50.0"/>
														<Node id="61" score="-0.20681536">
															<SimplePredicate field="float(Age)" operator="lessThan" value="58.0"/>
														</Node>
														<Node id="62" score="0.05146098">
															<SimplePredicate field="float(Age)" operator="greaterOrEqual" value="58.0"/>
														</Node>
													</Node>
													<Node id="46" defaultChild="63">
														<SimplePredicate field="float(Hours)" operator="greaterOrEqual" value="50.0"/>
														<Node id="63" score="-0.08385645">
															<SimplePredicate field="Employment" operator="notEqual" value="Private"/>
														</Node>
														<Node id="64" score="0.15608168">
															<SimplePredicate field="Employment" operator="equal" value="Private"/>
														</Node>
													</Node>
												</Node>
												<Node id="28" defaultChild="47">
													<SimplePredicate field="float(Income)" operator="greaterOrEqual" value="114400.18"/>
													<Node id="47" score="-0.0064129694">
														<SimplePredicate field="Education" operator="notEqual" value="Master"/>
													</Node>
													<Node id="48" score="-0.28884518">
														<SimplePredicate field="Education" operator="equal" value="Master"/>
													</Node>
												</Node>
											</Node>
										</Node>
									</Node>
								</Node>
							</TreeModel>
						</Segment>
						<Segment id="8">
							<True/>
							<TreeModel functionName="regression" missingValueStrategy="defaultChild" splitCharacteristic="binarySplit" x-mathContext="float">
								<MiningSchema>
									<MiningField name="Education"/>
									<MiningField name="Marital"/>
									<MiningField name="Occupation"/>
									<MiningField name="float(Age)"/>
									<MiningField name="float(Income)"/>
									<MiningField name="float(Hours)"/>
									<MiningField name="float(Deductions=true)"/>
								</MiningSchema>
								<Node id="0" defaultChild="1">
									<True/>
									<Node id="1" defaultChild="3">
										<SimplePredicate field="Marital" operator="notEqual" value="Married"/>
										<Node id="3" defaultChild="8">
											<SimplePredicate field="Education" operator="notEqual" value="HSgrad"/>
											<Node id="7" defaultChild="15">
												<SimplePredicate field="float(Income)" operator="lessThan" value="26498.59"/>
												<Node id="15" score="0.013508662">
													<SimplePredicate field="Occupation" operator="notEqual" value="Executive"/>
												</Node>
												<Node id="16" defaultChild="29">
													<SimplePredicate field="Occupation" operator="equal" value="Executive"/>
													<Node id="29" score="0.034765765">
														<SimplePredicate field="Occupation" operator="notEqual" value="Machinist"/>
													</Node>
													<Node id="30" defaultChild="47">
														<SimplePredicate field="Occupation" operator="equal" value="Machinist"/>
														<Node id="47" score="-0.052928578">
															<SimplePredicate field="Occupation" operator="notEqual" value="Sales"/>
														</Node>
														<Node id="48" score="-0.27038231">
															<SimplePredicate field="Occupation" operator="equal" value="Sales"/>
														</Node>
													</Node>
												</Node>
											</Node>
											<Node id="8" defaultChild="18">
												<SimplePredicate field="float(Income)" operator="greaterOrEqual" value="26498.59"/>
												<Node id="17" defaultChild="31">
													<SimplePredicate field="float(Deductions=true)" operator="lessThan" value="2.000001"/>
													<Node id="31" score="0.3350165">
														<SimplePredicate field="Occupation" operator="notEqual" value="Repair"/>
													</Node>
													<Node id="32" score="0.020960864">
														<SimplePredicate field="Occupation" operator="equal" value="Repair"/>
													</Node>
												</Node>
												<Node id="18" defaultChild="34">
													<SimplePredicate field="float(Deductions=true)" operator="greaterOrEqual" value="2.000001"/>
													<Node id="33" defaultChild="50">
														<SimplePredicate field="float(Hours)" operator="lessThan" value="65.0"/>
														<Node id="49" score="-0.02919168">
															<SimplePredicate field="float(Hours)" operator="lessThan" value="56.0"/>
														</Node>
														<Node id="50" score="-0.2966157">
															<SimplePredicate field="float(Hours)" operator="greaterOrEqual" value="56.0"/>
														</Node>
													</Node>
													<Node id="34" score="0.2761014">
														<SimplePredicate field="float(Hours)" operator="greaterOrEqual" value="65.0"/>
													</Node>
												</Node>
											</Node>
										</Node>
										<Node id="4" defaultChild="10">
											<SimplePredicate field="Education" operator="equal" value="HSgrad"/>
											<Node id="9" defaultChild="20">
												<SimplePredicate field="float(Income)" operator="lessThan" value="21246.65"/>
												<Node id="19" defaultChild="36">
													<SimplePredicate field="float(Hours)" operator="lessThan" value="49.0"/>
													<Node id="35" score="-0.16569458">
														<SimplePredicate field="float(Income)" operator="lessThan" value="6333.0"/>
													</Node>
													<Node id="36" defaultChild="52">
														<SimplePredicate field="float(Income)" operator="greaterOrEqual" value="6333.0"/>
														<Node id="51" score="0.02378005">
															<SimplePredicate field="float(Age)" operator="lessThan" value="48.0"/>
														</Node>
														<Node id="52" score="0.25282204">
															<SimplePredicate field="float(Age)" operator="greaterOrEqual" value="48.0"/>
														</Node>
													</Node>
												</Node>
												<Node id="20" score="0.32498765">
													<SimplePredicate field="float(Hours)" operator="greaterOrEqual" value="49.0"/>
												</Node>
											</Node>
											<Node id="10" defaultChild="22">
												<SimplePredicate field="float(Income)" operator="greaterOrEqual" value="21246.65"/>
												<Node id="21" score="-0.28109103">
													<SimplePredicate field="float(Income)" operator="lessThan" value="22444.12"/>
												</Node>
												<Node id="22" defaultChild="38">
													<SimplePredicate field="float(Income)" operator="greaterOrEqual" value="22444.12"/>
													<Node id="37" defaultChild="53">
														<SimplePredicate field="float(Income)" operator="lessThan" value="62936.81"/>
														<Node id="53" score="0.15776707">
															<SimplePredicate field="Education" operator="notEqual" value="Master"/>
														</Node>
														<Node id="54" score="-0.03610697">
															<SimplePredicate field="Education" operator="equal" value="Master"/>
														</Node>
													</Node>
													<Node id="38" defaultChild="56">
														<SimplePredicate field="float(Income)" operator="greaterOrEqual" value="62936.81"/>
														<Node id="55" score="0.17423116">
															<SimplePredicate field="float(Age)" operator="lessThan" value="52.0"/>
														</Node>
														<Node id="56" score="-0.10809823">
															<SimplePredicate field="float(Age)" operator="greaterOrEqual" value="52.0"/>
														</Node>
													</Node>
												</Node>
											</Node>
										</Node>
									</Node>
									<Node id="2" defaultChild="6">
										<SimplePredicate field="Marital" operator="equal" value="Married"/>
										<Node id="5" defaultChild="11">
											<SimplePredicate field="float(Age)" operator="lessThan" value="26.999998"/>
											<Node id="11" score="-0.040250946">
												<SimplePredicate field="Education" operator="notEqual" value="Associate"/>
											</Node>
											<Node id="12" defaultChild="24">
												<SimplePredicate field="Education" operator="equal" value="Associate"/>
												<Node id="23" score="-0.30795187">
													<SimplePredicate field="float(Hours)" operator="lessThan" value="56.0"/>
												</Node>
												<Node id="24" score="-0.032000504">
													<SimplePredicate field="float(Hours)" operator="greaterOrEqual" value="56.0"/>
												</Node>
											</Node>
										</Node>
										<Node id="6" defaultChild="14">
											<SimplePredicate field="float(Age)" operator="greaterOrEqual" value="26.999998"/>
											<Node id="13" defaultChild="25">
												<SimplePredicate field="float(Income)" operator="lessThan" value="106945.97"/>
												<Node id="25" defaultChild="39">
													<SimplePredicate field="Occupation" operator="notEqual" value="Professional"/>
													<Node id="39" defaultChild="58">
														<SimplePredicate field="Education" operator="notEqual" value="Master"/>
														<Node id="57" score="-0.2169582">
															<SimplePredicate field="float(Income)" operator="lessThan" value="62936.81"/>
														</Node>
														<Node id="58" score="-0.008657341">
															<SimplePredicate field="float(Income)" operator="greaterOrEqual" value="62936.81"/>
														</Node>
													</Node>
													<Node id="40" defaultChild="59">
														<SimplePredicate field="Education" operator="equal" value="Master"/>
														<Node id="59" score="-0.012249443">
															<SimplePredicate field="Marital" operator="notEqual" value="Divorced"/>
														</Node>
														<Node id="60" score="0.226314">
															<SimplePredicate field="Marital" operator="equal" value="Divorced"/>
														</Node>
													</Node>
												</Node>
												<Node id="26" defaultChild="42">
													<SimplePredicate field="Occupation" operator="equal" value="Professional"/>
													<Node id="41" defaultChild="61">
														<SimplePredicate field="float(Hours)" operator="lessThan" value="41.0"/>
														<Node id="61" score="0.013808585">
															<SimplePredicate field="Marital" operator="notEqual" value="Widowed"/>
														</Node>
														<Node id="62" score="-0.22001697">
															<SimplePredicate field="Marital" operator="equal" value="Widowed"/>
														</Node>
													</Node>
													<Node id="42" defaultChild="64">
														<SimplePredicate field="float(Hours)" operator="greaterOrEqual" value="41.0"/>
														<Node id="63" score="0.08507471">
															<SimplePredicate field="float(Income)" operator="lessThan" value="50969.27"/>
														</Node>
														<Node id="64" score="-0.07932081">
															<SimplePredicate field="float(Income)" operator="greaterOrEqual" value="50969.27"/>
														</Node>
													</Node>
												</Node>
											</Node>
											<Node id="14" defaultChild="27">
												<SimplePredicate field="float(Income)" operator="greaterOrEqual" value="106945.97"/>
												<Node id="27" defaultChild="44">
													<SimplePredicate field="Occupation" operator="notEqual" value="Executive"/>
													<Node id="43" score="0.1258893">
														<SimplePredicate field="float(Income)" operator="lessThan" value="147538.88"/>
													</Node>
													<Node id="44" score="-0.16475126">
														<SimplePredicate field="float(Income)" operator="greaterOrEqual" value="147538.88"/>
													</Node>
												</Node>
												<Node id="28" defaultChild="45">
													<SimplePredicate field="Occupation" operator="equal" value="Executive"/>
													<Node id="45" score="0.017682059">
														<SimplePredicate field="Occupation" operator="notEqual" value="Sales"/>
													</Node>
													<Node id="46" defaultChild="65">
														<SimplePredicate field="Occupation" operator="equal" value="Sales"/>
														<Node id="65" score="-0.017488765">
															<SimplePredicate field="Marital" operator="notEqual" value="Widowed"/>
														</Node>
														<Node id="66" score="-0.2870016">
															<SimplePredicate field="Marital" operator="equal" value="Widowed"/>
														</Node>
													</Node>
												</Node>
											</Node>
										</Node>
									</Node>
								</Node>
							</TreeModel>
						</Segment>
						<Segment id="9">
							<True/>
							<TreeModel functionName="regression" missingValueStrategy="defaultChild" splitCharacteristic="binarySplit" x-mathContext="float">
								<MiningSchema>
									<MiningField name="Education"/>
									<MiningField name="Marital"/>
									<MiningField name="Occupation"/>
									<MiningField name="float(Age)"/>
									<MiningField name="float(Income)"/>
									<MiningField name="float(Hours)"/>
								</MiningSchema>
								<Node id="0" defaultChild="2">
									<True/>
									<Node id="1" defaultChild="3">
										<SimplePredicate field="float(Age)" operator="lessThan" value="24.999998"/>
										<Node id="3" score="0.012823358">
											<SimplePredicate field="Education" operator="notEqual" value="Associate"/>
										</Node>
										<Node id="4" score="-0.29700205">
											<SimplePredicate field="Education" operator="equal" value="Associate"/>
										</Node>
									</Node>
									<Node id="2" defaultChild="5">
										<SimplePredicate field="float(Age)" operator="greaterOrEqual" value="24.999998"/>
										<Node id="5" defaultChild="8">
											<SimplePredicate field="Occupation" operator="notEqual" value="Service"/>
											<Node id="7" defaultChild="12">
												<SimplePredicate field="float(Age)" operator="lessThan" value="54.0"/>
												<Node id="11" score="-0.07122983">
													<SimplePredicate field="float(Income)" operator="lessThan" value="19547.6"/>
												</Node>
												<Node id="12" score="-0.26703322">
													<SimplePredicate field="float(Income)" operator="greaterOrEqual" value="19547.6"/>
												</Node>
											</Node>
											<Node id="8" defaultChild="14">
												<SimplePredicate field="float(Age)" operator="greaterOrEqual" value="54.0"/>
												<Node id="13" score="-0.20963989">
													<SimplePredicate field="float(Hours)" operator="lessThan" value="40.0"/>
												</Node>
												<Node id="14" score="0.022155376">
													<SimplePredicate field="float(Hours)" operator="greaterOrEqual" value="40.0"/>
												</Node>
											</Node>
										</Node>
										<Node id="6" defaultChild="9">
											<SimplePredicate field="Occupation" operator="equal" value="Service"/>
											<Node id="9" defaultChild="15">
												<SimplePredicate field="Marital" operator="notEqual" value="Married"/>
												<Node id="15" score="-0.28553465">
													<SimplePredicate field="Education" operator="notEqual" value="Yr7t8"/>
												</Node>
												<Node id="16" defaultChild="19">
													<SimplePredicate field="Education" operator="equal" value="Yr7t8"/>
													<Node id="19" defaultChild="26">
														<SimplePredicate field="Occupation" operator="notEqual" value="Transport"/>
														<Node id="25" score="-0.27674353">
															<SimplePredicate field="float(Age)" operator="lessThan" value="44.0"/>
														</Node>
														<Node id="26" score="0.05437985">
